<?xml version="1.0"?>
<opencv_storage>
<cascade>
  <stageType>BOOST</stageType>
  <featureType>LBP</featureType>
  <height>24</height>
  <width>24</width>
  <stageParams>
    <boostType>GAB</boostType>
    <minHitRate>9.9500000476837158e-01</minHitRate>
    <maxFalseAlarm>5.0000000000000000e-01</maxFalseAlarm>
    <weightTrimRate>9.4999999999999996e-01</weightTrimRate>
    <maxDepth>1</maxDepth>
    <maxWeakCount>100</maxWeakCount></stageParams>
  <featureParams>
    <maxCatCount>256</maxCatCount>
    <featSize>1</featSize></featureParams>
  <stageNum>10</stageNum>
  <stages>
    <!-- stage 0 -->
    <_>
      <maxWeakCount>2</maxWeakCount>
      <stageThreshold>-2.1292972564697266e-01</stageThreshold>
      <weakClassifiers>
        <_>
          <internalNodes>
            0 -1 1 -772279809 -167830089 -771635745 -201897505
            -913536769 -79900677 -627384353 -67388693</internalNodes>
          <leafValues>
            -9.7808766365051270e-01 8.5416668653488159e-01</leafValues></_>
        <_>
          <internalNodes>
            0 -1 10 -705178177 -778583689 1270718943 -6310981 1506084815
            -67416641 -4489825 -1048625</internalNodes>
          <leafValues>
            -9.8889607191085815e-01 7.6515793800354004e-01</leafValues></_></weakClassifiers></_>
    <!-- stage 1 -->
    <_>
      <maxWeakCount>2</maxWeakCount>
      <stageThreshold>-2.4057281017303467e-01</stageThreshold>
      <weakClassifiers>
        <_>
          <internalNodes>
            0 -1 11 -525345 -136849041 -1320691785 -9441061 -554703873
            -107445865 -338710021 -3587</internalNodes>
          <leafValues>
            -9.7399997711181641e-01 7.4000000953674316e-01</leafValues></_>
        <_>
          <internalNodes>
            0 -1 6 -1572865 -110232673 256627675 -2108449 -174587905
            -3357299 1388051903 -1048585</internalNodes>
          <leafValues>
            -9.8057281970977783e-01 7.3993533849716187e-01</leafValues></_></weakClassifiers></_>
    <!-- stage 2 -->
    <_>
      <maxWeakCount>3</maxWeakCount>
      <stageThreshold>-1.3048483133316040e+00</stageThreshold>
      <weakClassifiers>
        <_>
          <internalNodes>
            0 -1 3 -536872961 -33563493 -1013919299 -67148071 -12845057
            -874775897 -1140867137 -538969377</internalNodes>
          <leafValues>
            -9.7565925121307373e-01 5.4385966062545776e-01</leafValues></_>
        <_>
          <internalNodes>
            0 -1 4 -537404417 -2113265 -645140033 -44477633 -645138181
            -813388597 -1548159273 -15941</internalNodes>
          <leafValues>
            -9.4030797481536865e-01 6.8854659795761108e-01</leafValues></_>
        <_>
          <internalNodes>
            0 -1 0 -3145729 -537932289 -839516167 1604252775 -907550721
            -1095769633 1607064319 -769</internalNodes>
          <leafValues>
            -9.9648535251617432e-01 6.1111891269683838e-01</leafValues></_></weakClassifiers></_>
    <!-- stage 3 -->
    <_>
      <maxWeakCount>2</maxWeakCount>
      <stageThreshold>-6.3425129652023315e-01</stageThreshold>
      <weakClassifiers>
        <_>
          <internalNodes>
            0 -1 7 -67373057 -748170325 -1006000685 -171457597
            -241976417 -710245717 -605029409 -536883729</internalNodes>
          <leafValues>
            -9.7119343280792236e-01 3.4375000000000000e-01</leafValues></_>
        <_>
          <internalNodes>
            0 -1 8 -100663297 -52829194 1481756407 -138543105 2046558207
            -16540773 2005661655 -4196178</internalNodes>
          <leafValues>
            -9.7800129652023315e-01 4.0793022513389587e-01</leafValues></_></weakClassifiers></_>
    <!-- stage 4 -->
    <_>
      <maxWeakCount>3</maxWeakCount>
      <stageThreshold>-1.3752130270004272e+00</stageThreshold>
      <weakClassifiers>
        <_>
          <internalNodes>
            0 -1 21 -134217729 2102385305 -929464197 -208674355
            -876095041 -234700600 -658841170 -36700961</internalNodes>
          <leafValues>
            -9.2794549465179443e-01 7.2602736949920654e-01</leafValues></_>
        <_>
          <internalNodes>
            0 -1 9 -137888769 -270606949 -648832737 -14993181 -416547841
            -878511945 -1307837026 -537929026</internalNodes>
          <leafValues>
            -9.4459313154220581e-01 4.4258227944374084e-01</leafValues></_>
        <_>
          <internalNodes>
            0 -1 18 -592052865 -585801001 -1467886722 -592476833
            -40261217 -17053214 -1163132997 -252708929</internalNodes>
          <leafValues>
            -8.8984990119934082e-01 5.7396495342254639e-01</leafValues></_></weakClassifiers></_>
    <!-- stage 5 -->
    <_>
      <maxWeakCount>3</maxWeakCount>
      <stageThreshold>-1.4219216108322144e+00</stageThreshold>
      <weakClassifiers>
        <_>
          <internalNodes>
            0 -1 15 -67633153 -683029601 -2130578613 -181405377
            -1148453889 -108285173 -75507271 -16777281</internalNodes>
          <leafValues>
            -9.4784355163574219e-01 4.3689319491386414e-01</leafValues></_>
        <_>
          <internalNodes>
            0 -1 19 -35652129 1574428639 -393493345 1577044429
            -863522065 2030938249 -494814753 -2100757</internalNodes>
          <leafValues>
            -9.0465009212493896e-01 4.6957978606224060e-01</leafValues></_>
        <_>
          <internalNodes>
            0 -1 2 -270593 -684516641 -1795063555 -4699751 -276320321
            -874777637 1072233467 -541097015</internalNodes>
          <leafValues>
            -9.4365787506103516e-01 5.3877878189086914e-01</leafValues></_></weakClassifiers></_>
    <!-- stage 6 -->
    <_>
      <maxWeakCount>3</maxWeakCount>
      <stageThreshold>-1.4882948398590088e+00</stageThreshold>
      <weakClassifiers>
        <_>
          <internalNodes>
            0 -1 13 -212074497 -174205515 -1861121027 2069219586
            -72232961 -1012582 -56902721 -275749</internalNodes>
          <leafValues>
            -9.1287511587142944e-01 6.4179104566574097e-01</leafValues></_>
        <_>
          <internalNodes>
            0 -1 24 1069481919 -1082158241 -779630701 -1222649393
            -103427137 -123492797 -542905617 -3146769</internalNodes>
          <leafValues>
            -9.7102624177932739e-01 3.1490951776504517e-01</leafValues></_>
        <_>
          <internalNodes>
            0 -1 20 2147450877 2146949837 1652280063 1473353663
            1046510549 -272660145 -351737365 -5247297</internalNodes>
          <leafValues>
            -8.9032918214797974e-01 4.8593428730964661e-01</leafValues></_></weakClassifiers></_>
    <!-- stage 7 -->
    <_>
      <maxWeakCount>3</maxWeakCount>
      <stageThreshold>-1.4837902784347534e+00</stageThreshold>
      <weakClassifiers>
        <_>
          <internalNodes>
            0 -1 14 -572532225 -639901413 -2129934849 -136345137
            -75063809 -675571566 -326374785 -3150081</internalNodes>
          <leafValues>
            -9.2892396450042725e-01 4.7126436233520508e-01</leafValues></_>
        <_>
          <internalNodes>
            0 -1 23 -201327873 1003245635 -771296289 1594230679
            -78916881 1317782912 -242745622 -69272905</internalNodes>
          <leafValues>
            -8.9767849445343018e-01 3.8690838217735291e-01</leafValues></_>
        <_>
          <internalNodes>
            0 -1 16 -11011369 -106511941 -805051245 -3297107 -878707733
            -263480049 1206625723 -402963</internalNodes>
          <leafValues>
            -9.4177472591400146e-01 5.1337277889251709e-01</leafValues></_></weakClassifiers></_>
    <!-- stage 8 -->
    <_>
      <maxWeakCount>3</maxWeakCount>
      <stageThreshold>-1.3751260042190552e+00</stageThreshold>
      <weakClassifiers>
        <_>
          <internalNodes>
            0 -1 12 -168296449 -218638337 -746533949 -176074620
            -152584199 -104411675 -527831297 -108007427</internalNodes>
          <leafValues>
            -9.3000000715255737e-01 3.0000001192092896e-01</leafValues></_>
        <_>
          <internalNodes>
            0 -1 5 -137375249 -661269685 -1056754929 -187440405
            -225970278 -116981345 -387319005 -1853657</internalNodes>
          <leafValues>
            -8.5429406166076660e-01 3.8593336939811707e-01</leafValues></_>
        <_>
          <internalNodes>
            0 -1 26 -145233426 -1326325425 -184495888 -675731561
            -1810373941 1125220821 -141301017 -1048577</internalNodes>
          <leafValues>
            -8.2083189487457275e-01 6.0998862981796265e-01</leafValues></_></weakClassifiers></_>
    <!-- stage 9 -->
    <_>
      <maxWeakCount>3</maxWeakCount>
      <stageThreshold>-1.5585528612136841e+00</stageThreshold>
      <weakClassifiers>
        <_>
          <internalNodes>
            0 -1 22 -8528449 1574811103 -1157556801 -3304585 -204742657
            -16073017 -70452309 -72352817</internalNodes>
          <leafValues>
            -9.3593591451644897e-01 3.4653463959693909e-01</leafValues></_>
        <_>
          <internalNodes>
            0 -1 17 -1275609089 -579086641 -385639649 -2107591
            1006106615 -268246815 401342441 -4205591</internalNodes>
          <leafValues>
            -9.7353655099868774e-01 2.3397429287433624e-01</leafValues></_>
        <_>
          <internalNodes>
            0 -1 25 -137374721 1569039315 1103122601 2134172263
            -146288229 1258459146 -534928422 -1429226502</internalNodes>
          <leafValues>
            -8.5659122467041016e-01 5.1194739341735840e-01</leafValues></_></weakClassifiers></_></stages>
  <features>
    <_>
      <rect>
        0 5 6 6</rect></_>
    <_>
      <rect>
        0 7 7 5</rect></_>
    <_>
      <rect>
        0 10 6 4</rect></_>
    <_>
      <rect>
        0 11 5 4</rect></_>
    <_>
      <rect>
        0 17 2 1</rect></_>
    <_>
      <rect>
        0 18 1 2</rect></_>
    <_>
      <rect>
        1 3 5 6</rect></_>
    <_>
      <rect>
        2 8 2 5</rect></_>
    <_>
      <rect>
        2 9 3 3</rect></_>
    <_>
      <rect>
        2 14 3 3</rect></_>
    <_>
      <rect>
        3 2 6 6</rect></_>
    <_>
      <rect>
        3 9 2 3</rect></_>
    <_>
      <rect>
        6 1 5 7</rect></_>
    <_>
      <rect>
        6 7 5 2</rect></_>
    <_>
      <rect>
        7 1 3 2</rect></_>
    <_>
      <rect>
        7 2 2 4</rect></_>
    <_>
      <rect>
        7 8 1 2</rect></_>
    <_>
      <rect>
        9 6 2 3</rect></_>
    <_>
      <rect>
        12 0 4 2</rect></_>
    <_>
      <rect>
        12 2 4 5</rect></_>
    <_>
      <rect>
        13 9 3 3</rect></_>
    <_>
      <rect>
        14 1 3 7</rect></_>
    <_>
      <rect>
        14 6 3 2</rect></_>
    <_>
      <rect>
        17 1 1 2</rect></_>
    <_>
      <rect>
        18 6 2 3</rect></_>
    <_>
      <rect>
        20 2 1 3</rect></_>
    <_>
      <rect>
        21 8 1 1</rect></_></features></cascade>
</opencv_storage>
